svm_type c_svc
kernel_type rbf
gamma 0.2
nr_class 2
total_sv 5
rho -0.476886
label 1 2
nr_sv 3 2
SV
0.2996173480802775 1:1 3:1 4:1 5:1 
0.8501913259598612 1:1 2:1 4:1 5:1 
0.8501913259598611 1:1 2:1 3:1 5:1 
-1 2:1 
-1 1:1 
